digraph Tree {
node [shape=box] ;
0 [label="YearsAtCompany <= 1.5\ngini = 0.27\nsamples = 3505\nvalue = [2941, 564]"] ;
1 [label="DistanceFromHome <= 33.5\ngini = 0.455\nsamples = 514\nvalue = [334, 180]"] ;
0 -> 1 [labeldistance=2.5, labelangle=45, headlabel="True"] ;
2 [label="MonthlyIncome <= 170270.0\ngini = 0.498\nsamples = 250\nvalue = [117, 133]"] ;
1 -> 2 ;
3 [label="DistanceFromHome <= 22.5\ngini = 0.494\nsamples = 240\nvalue = [107, 133]"] ;
2 -> 3 ;
4 [label="MonthlyIncome <= 23140.0\ngini = 0.386\nsamples = 69\nvalue = [18, 51]"] ;
3 -> 4 ;
5 [label="gini = 0.0\nsamples = 3\nvalue = [3, 0]"] ;
4 -> 5 ;
6 [label="gini = 0.351\nsamples = 66\nvalue = [15, 51]"] ;
4 -> 6 ;
7 [label="MonthlyIncome <= 21555.0\ngini = 0.499\nsamples = 171\nvalue = [89, 82]"] ;
3 -> 7 ;
8 [label="gini = 0.332\nsamples = 19\nvalue = [15, 4]"] ;
7 -> 8 ;
9 [label="gini = 0.5\nsamples = 152\nvalue = [74, 78]"] ;
7 -> 9 ;
10 [label="gini = 0.0\nsamples = 10\nvalue = [10, 0]"] ;
2 -> 10 ;
11 [label="Age <= 2.5\ngini = 0.293\nsamples = 264\nvalue = [217, 47]"] ;
1 -> 11 ;
12 [label="MonthlyIncome <= 24545.0\ngini = 0.414\nsamples = 99\nvalue = [70, 29]"] ;
11 -> 12 ;
13 [label="gini = 0.0\nsamples = 17\nvalue = [17, 0]"] ;
12 -> 13 ;
14 [label="MonthlyIncome <= 59765.0\ngini = 0.457\nsamples = 82\nvalue = [53, 29]"] ;
12 -> 14 ;
15 [label="gini = 0.498\nsamples = 32\nvalue = [15, 17]"] ;
14 -> 15 ;
16 [label="gini = 0.365\nsamples = 50\nvalue = [38, 12]"] ;
14 -> 16 ;
17 [label="DistanceFromHome <= 57.0\ngini = 0.194\nsamples = 165\nvalue = [147, 18]"] ;
11 -> 17 ;
18 [label="MonthlyIncome <= 139965.0\ngini = 0.156\nsamples = 152\nvalue = [139, 13]"] ;
17 -> 18 ;
19 [label="gini = 0.113\nsamples = 133\nvalue = [125, 8]"] ;
18 -> 19 ;
20 [label="gini = 0.388\nsamples = 19\nvalue = [14, 5]"] ;
18 -> 20 ;
21 [label="Age <= 7.0\ngini = 0.473\nsamples = 13\nvalue = [8, 5]"] ;
17 -> 21 ;
22 [label="gini = 0.0\nsamples = 6\nvalue = [6, 0]"] ;
21 -> 22 ;
23 [label="gini = 0.408\nsamples = 7\nvalue = [2, 5]"] ;
21 -> 23 ;
24 [label="DistanceFromHome <= 34.5\ngini = 0.224\nsamples = 2991\nvalue = [2607, 384]"] ;
0 -> 24 [labeldistance=2.5, labelangle=-45, headlabel="False"] ;
25 [label="YearsAtCompany <= 3.5\ngini = 0.291\nsamples = 1271\nvalue = [1046, 225]"] ;
24 -> 25 ;
26 [label="Age <= 3.5\ngini = 0.412\nsamples = 321\nvalue = [228, 93]"] ;
25 -> 26 ;
27 [label="PercentSalaryHike <= 11.5\ngini = 0.256\nsamples = 93\nvalue = [79, 14]"] ;
26 -> 27 ;
28 [label="gini = 0.48\nsamples = 15\nvalue = [9, 6]"] ;
27 -> 28 ;
29 [label="gini = 0.184\nsamples = 78\nvalue = [70, 8]"] ;
27 -> 29 ;
30 [label="MonthlyIncome <= 38840.0\ngini = 0.453\nsamples = 228\nvalue = [149, 79]"] ;
26 -> 30 ;
31 [label="gini = 0.499\nsamples = 82\nvalue = [43, 39]"] ;
30 -> 31 ;
32 [label="gini = 0.398\nsamples = 146\nvalue = [106, 40]"] ;
30 -> 32 ;
33 [label="PercentSalaryHike <= 24.5\ngini = 0.239\nsamples = 950\nvalue = [818, 132]"] ;
25 -> 33 ;
34 [label="Age <= 26.5\ngini = 0.232\nsamples = 940\nvalue = [814, 126]"] ;
33 -> 34 ;
35 [label="gini = 0.219\nsamples = 889\nvalue = [778, 111]"] ;
34 -> 35 ;
36 [label="gini = 0.415\nsamples = 51\nvalue = [36, 15]"] ;
34 -> 36 ;
37 [label="YearsAtCompany <= 6.5\ngini = 0.48\nsamples = 10\nvalue = [4, 6]"] ;
33 -> 37 ;
38 [label="gini = 0.0\nsamples = 6\nvalue = [0, 6]"] ;
37 -> 38 ;
39 [label="gini = 0.0\nsamples = 4\nvalue = [4, 0]"] ;
37 -> 39 ;
40 [label="MonthlyIncome <= 10300.0\ngini = 0.168\nsamples = 1720\nvalue = [1561, 159]"] ;
24 -> 40 ;
41 [label="gini = 0.0\nsamples = 3\nvalue = [0, 3]"] ;
40 -> 41 ;
42 [label="YearsAtCompany <= 38.5\ngini = 0.165\nsamples = 1717\nvalue = [1561, 156]"] ;
40 -> 42 ;
43 [label="MonthlyIncome <= 67975.0\ngini = 0.163\nsamples = 1715\nvalue = [1561, 154]"] ;
42 -> 43 ;
44 [label="gini = 0.194\nsamples = 1191\nvalue = [1061, 130]"] ;
43 -> 44 ;
45 [label="gini = 0.087\nsamples = 524\nvalue = [500, 24]"] ;
43 -> 45 ;
46 [label="gini = 0.0\nsamples = 2\nvalue = [0, 2]"] ;
42 -> 46 ;
}